<?xml version="1.0"?>
<opencv_storage>
<stage5>
  <maxWeakCount>6</maxWeakCount>
  <stageThreshold>-2.4103906154632568e+00</stageThreshold>
  <weakClassifiers>
    <_>
      <internalNodes>
        0 -1 1005517 3.3105947077274323e-02</internalNodes>
      <leafValues>
        -7.5270652770996094e-01 4.4550263881683350e-01</leafValues></_>
    <_>
      <internalNodes>
        0 -1 2207814 4.7830112278461456e-02</internalNodes>
      <leafValues>
        -7.4601304531097412e-01 3.9850217103958130e-01</leafValues></_>
    <_>
      <internalNodes>
        0 -1 3407894 8.5294137534219772e-05</internalNodes>
      <leafValues>
        -8.9274525642395020e-01 3.3100473880767822e-01</leafValues></_>
    <_>
      <internalNodes>
        0 -1 2272718 4.2929217219352722e-02</internalNodes>
      <leafValues>
        -7.8983044624328613e-01 3.2380092144012451e-01</leafValues></_>
    <_>
      <internalNodes>
        0 -1 3358054 8.7454420281574130e-04</internalNodes>
      <leafValues>
        -7.3014670610427856e-01 3.4952792525291443e-01</leafValues></_>
    <_>
      <internalNodes>
        0 -1 2826306 -1.9632221665233374e-04</internalNodes>
      <leafValues>
        -1. 2.7730149030685425e-01</leafValues></_></weakClassifiers></stage5>
</opencv_storage>
